## MART
## No. of trees = 1000
## No. of leaves = 10
## No. of threshold candidates = 256
## Learning rate = 0.1
## Stop early = 100

<ensemble>
	<tree id="1" weight="0.1">
		<split>
			<feature> 18 </feature>
			<threshold> 0.125 </threshold>
			<split pos="left">
				<feature> 18 </feature>
				<threshold> 0.0 </threshold>
				<split pos="left">
					<feature> 19 </feature>
					<threshold> 0.083333336 </threshold>
					<split pos="left">
						<feature> 19 </feature>
						<threshold> 0.0 </threshold>
						<split pos="left">
							<output> 1.3522677 </output>
						</split>
						<split pos="right">
							<output> 1.7723362 </output>
						</split>
					</split>
					<split pos="right">
						<output> 1.1277041 </output>
					</split>
				</split>
				<split pos="right">
					<output> 1.8673676 </output>
				</split>
			</split>
			<split pos="right">
				<feature> 18 </feature>
				<threshold> 0.16666667 </threshold>
				<split pos="left">
					<output> 1.0 </output>
				</split>
				<split pos="right">
					<feature> 18 </feature>
					<threshold> 0.18181819 </threshold>
					<split pos="left">
						<output> 2.2 </output>
					</split>
					<split pos="right">
						<feature> 18 </feature>
						<threshold> 0.2 </threshold>
						<split pos="left">
							<output> 1.0 </output>
						</split>
						<split pos="right">
							<feature> 18 </feature>
							<threshold> 0.27272728 </threshold>
							<split pos="left">
								<output> 1.6395991 </output>
							</split>
							<split pos="right">
								<feature> 18 </feature>
								<threshold> 0.33333334 </threshold>
								<split pos="left">
									<output> 1.0 </output>
								</split>
								<split pos="right">
									<output> 1.291258 </output>
								</split>
							</split>
						</split>
					</split>
				</split>
			</split>
		</split>
	</tree>
	<tree id="2" weight="0.1">
		<split>
			<feature> 18 </feature>
			<threshold> 0.125 </threshold>
			<split pos="left">
				<feature> 18 </feature>
				<threshold> 0.0 </threshold>
				<split pos="left">
					<feature> 19 </feature>
					<threshold> 0.083333336 </threshold>
					<split pos="left">
						<feature> 19 </feature>
						<threshold> 0.0 </threshold>
						<split pos="left">
							<output> 1.2171531 </output>
						</split>
						<split pos="right">
							<output> 1.5950907 </output>
						</split>
					</split>
					<split pos="right">
						<output> 1.014913 </output>
					</split>
				</split>
				<split pos="right">
					<output> 1.6806122 </output>
				</split>
			</split>
			<split pos="right">
				<feature> 18 </feature>
				<threshold> 0.16666667 </threshold>
				<split pos="left">
					<output> 0.9000157 </output>
				</split>
				<split pos="right">
					<feature> 18 </feature>
					<threshold> 0.18181819 </threshold>
					<split pos="left">
						<output> 1.9800129 </output>
					</split>
					<split pos="right">
						<feature> 18 </feature>
						<threshold> 0.375 </threshold>
						<split pos="left">
							<feature> 18 </feature>
							<threshold> 0.33333334 </threshold>
							<split pos="left">
								<feature> 18 </feature>
								<threshold> 0.27272728 </threshold>
								<split pos="left">
									<output> 1.2887154 </output>
								</split>
								<split pos="right">
									<output> 0.8999486 </output>
								</split>
							</split>
							<split pos="right">
								<output> 1.7022628 </output>
							</split>
						</split>
						<split pos="right">
							<output> 1.0065852 </output>
						</split>
					</split>
				</split>
			</split>
		</split>
	</tree>
	<tree id="3" weight="0.1">
		<split>
			<feature> 18 </feature>
			<threshold> 0.125 </threshold>
			<split pos="left">
				<feature> 18 </feature>
				<threshold> 0.0 </threshold>
				<split pos="left">
					<feature> 19 </feature>
					<threshold> 0.083333336 </threshold>
					<split pos="left">
						<feature> 19 </feature>
						<threshold> 0.0 </threshold>
						<split pos="left">
							<output> 1.0954126 </output>
						</split>
						<split pos="right">
							<output> 1.4356081 </output>
						</split>
					</split>
					<split pos="right">
						<output> 0.9133912 </output>
					</split>
				</split>
				<split pos="right">
					<output> 1.5125891 </output>
				</split>
			</split>
			<split pos="right">
				<feature> 18 </feature>
				<threshold> 0.16666667 </threshold>
				<split pos="left">
					<output> 0.81000596 </output>
				</split>
				<split pos="right">
					<feature> 18 </feature>
					<threshold> 0.18181819 </threshold>
					<split pos="left">
						<output> 1.7820228 </output>
					</split>
					<split pos="right">
						<feature> 18 </feature>
						<threshold> 0.2 </threshold>
						<split pos="left">
							<output> 0.7711653 </output>
						</split>
						<split pos="right">
							<feature> 18 </feature>
							<threshold> 0.27272728 </threshold>
							<split pos="left">
								<output> 1.3466872 </output>
							</split>
							<split pos="right">
								<feature> 18 </feature>
								<threshold> 0.33333334 </threshold>
								<split pos="left">
									<output> 0.8100451 </output>
								</split>
								<split pos="right">
									<output> 1.0459166 </output>
								</split>
							</split>
						</split>
					</split>
				</split>
			</split>
		</split>
	</tree>
	<tree id="4" weight="0.1">
		<split>
			<feature> 18 </feature>
			<threshold> 0.125 </threshold>
			<split pos="left">
				<feature> 18 </feature>
				<threshold> 0.0 </threshold>
				<split pos="left">
					<feature> 19 </feature>
					<threshold> 0.083333336 </threshold>
					<split pos="left">
						<feature> 19 </feature>
						<threshold> 0.0 </threshold>
						<split pos="left">
							<output> 0.98571867 </output>
						</split>
						<split pos="right">
							<output> 1.2920604 </output>
						</split>
					</split>
					<split pos="right">
						<output> 0.82207847 </output>
					</split>
				</split>
				<split pos="right">
					<output> 1.361452 </output>
				</split>
			</split>
			<split pos="right">
				<feature> 18 </feature>
				<threshold> 0.16666667 </threshold>
				<split pos="left">
					<output> 0.7290038 </output>
				</split>
				<split pos="right">
					<feature> 18 </feature>
					<threshold> 0.18181819 </threshold>
					<split pos="left">
						<output> 1.6038078 </output>
					</split>
					<split pos="right">
						<feature> 21 </feature>
						<threshold> 0.4205114 </threshold>
						<split pos="left">
							<output> 0.806163 </output>
						</split>
						<split pos="right">
							<feature> 18 </feature>
							<threshold> 0.2 </threshold>
							<split pos="left">
								<output> 0.69399565 </output>
							</split>
							<split pos="right">
								<feature> 18 </feature>
								<threshold> 0.27272728 </threshold>
								<split pos="left">
									<output> 1.289905 </output>
								</split>
								<split pos="right">
									<output> 0.95625526 </output>
								</split>
							</split>
						</split>
					</split>
				</split>
			</split>
		</split>
	</tree>
	<tree id="5" weight="0.1">
		<split>
			<feature> 16 </feature>
			<threshold> 0.07692308 </threshold>
			<split pos="left">
				<feature> 74 </feature>
				<threshold> 0.015625 </threshold>
				<split pos="left">
					<feature> 96 </feature>
					<threshold> 0.02734375 </threshold>
					<split pos="left">
						<output> 0.8469645 </output>
					</split>
					<split pos="right">
						<feature> 106 </feature>
						<threshold> 0.01171875 </threshold>
						<split pos="left">
							<output> 0.75038505 </output>
						</split>
						<split pos="right">
							<output> 1.2392538 </output>
						</split>
					</split>
				</split>
				<split pos="right">
					<feature> 87 </feature>
					<threshold> 0.01171875 </threshold>
					<split pos="left">
						<output> 1.143512 </output>
					</split>
					<split pos="right">
						<output> 0.831506 </output>
					</split>
				</split>
			</split>
			<split pos="right">
				<feature> 16 </feature>
				<threshold> 0.14285715 </threshold>
				<split pos="left">
					<output> 0.5999433 </output>
				</split>
				<split pos="right">
					<feature> 16 </feature>
					<threshold> 0.15384616 </threshold>
					<split pos="left">
						<output> 1.1093223 </output>
					</split>
					<split pos="right">
						<feature> 16 </feature>
						<threshold> 0.3846154 </threshold>
						<split pos="left">
							<feature> 16 </feature>
							<threshold> 0.2 </threshold>
							<split pos="left">
								<output> 0.57857853 </output>
							</split>
							<split pos="right">
								<output> 0.94329584 </output>
							</split>
						</split>
						<split pos="right">
							<output> 0.6349529 </output>
						</split>
					</split>
				</split>
			</split>
		</split>
	</tree>
	<tree id="6" weight="0.1">
		<split>
			<feature> 18 </feature>
			<threshold> 0.125 </threshold>
			<split pos="left">
				<feature> 18 </feature>
				<threshold> 0.0 </threshold>
				<split pos="left">
					<feature> 14 </feature>
					<threshold> 0.125 </threshold>
					<split pos="left">
						<output> 0.6786857 </output>
					</split>
					<split pos="right">
						<feature> 14 </feature>
						<threshold> 0.14285715 </threshold>
						<split pos="left">
							<output> 1.5839587 </output>
						</split>
						<split pos="right">
							<output> 0.85562694 </output>
						</split>
					</split>
				</split>
				<split pos="right">
					<feature> 18 </feature>
					<threshold> 0.09090909 </threshold>
					<split pos="left">
						<output> 1.4496967 </output>
					</split>
					<split pos="right">
						<output> 0.9905756 </output>
					</split>
				</split>
			</split>
			<split pos="right">
				<feature> 18 </feature>
				<threshold> 0.16666667 </threshold>
				<split pos="left">
					<output> 0.57712287 </output>
				</split>
				<split pos="right">
					<feature> 18 </feature>
					<threshold> 0.18181819 </threshold>
					<split pos="left">
						<output> 1.3372345 </output>
					</split>
					<split pos="right">
						<feature> 74 </feature>
						<threshold> 0.01171875 </threshold>
						<split pos="left">
							<feature> 18 </feature>
							<threshold> 0.375 </threshold>
							<split pos="left">
								<output> 0.96918404 </output>
							</split>
							<split pos="right">
								<output> 0.66099066 </output>
							</split>
						</split>
						<split pos="right">
							<output> 0.6620372 </output>
						</split>
					</split>
				</split>
			</split>
		</split>
	</tree>
	<tree id="7" weight="0.1">
		<split>
			<feature> 16 </feature>
			<threshold> 0.07692308 </threshold>
			<split pos="left">
				<feature> 18 </feature>
				<threshold> 0.125 </threshold>
				<split pos="left">
					<feature> 18 </feature>
					<threshold> 0.0 </threshold>
					<split pos="left">
						<feature> 93 </feature>
						<threshold> 0.015625 </threshold>
						<split pos="left">
							<output> 0.9069521 </output>
						</split>
						<split pos="right">
							<output> 0.66207296 </output>
						</split>
					</split>
					<split pos="right">
						<output> 1.1179973 </output>
					</split>
				</split>
				<split pos="right">
					<output> 0.70024645 </output>
				</split>
			</split>
			<split pos="right">
				<feature> 16 </feature>
				<threshold> 0.14285715 </threshold>
				<split pos="left">
					<output> 0.47073534 </output>
				</split>
				<split pos="right">
					<feature> 16 </feature>
					<threshold> 0.15384616 </threshold>
					<split pos="left">
						<output> 0.90841204 </output>
					</split>
					<split pos="right">
						<feature> 16 </feature>
						<threshold> 0.3846154 </threshold>
						<split pos="left">
							<feature> 16 </feature>
							<threshold> 0.2 </threshold>
							<split pos="left">
								<output> 0.4477024 </output>
							</split>
							<split pos="right">
								<feature> 15 </feature>
								<threshold> 0.2857143 </threshold>
								<split pos="left">
									<output> 0.64031506 </output>
								</split>
								<split pos="right">
									<output> 0.8988622 </output>
								</split>
							</split>
						</split>
						<split pos="right">
							<output> 0.5006788 </output>
						</split>
					</split>
				</split>
			</split>
		</split>
	</tree>
	<tree id="8" weight="0.1">
		<split>
			<feature> 19 </feature>
			<threshold> 0.083333336 </threshold>
			<split pos="left">
				<feature> 19 </feature>
				<threshold> 0.0 </threshold>
				<split pos="left">
					<feature> 85 </feature>
					<threshold> 0.01171875 </threshold>
					<split pos="left">
						<output> 0.7344662 </output>
					</split>
					<split pos="right">
						<output> 0.55128396 </output>
					</split>
				</split>
				<split pos="right">
					<output> 0.88232255 </output>
				</split>
			</split>
			<split pos="right">
				<feature> 19 </feature>
				<threshold> 0.125 </threshold>
				<split pos="left">
					<output> 0.41247553 </output>
				</split>
				<split pos="right">
					<feature> 18 </feature>
					<threshold> 0.375 </threshold>
					<split pos="left">
						<feature> 18 </feature>
						<threshold> 0.33333334 </threshold>
						<split pos="left">
							<feature> 18 </feature>
							<threshold> 0.27272728 </threshold>
							<split pos="left">
								<feature> 18 </feature>
								<threshold> 0.25 </threshold>
								<split pos="left">
									<feature> 15 </feature>
									<threshold> 0.25 </threshold>
									<split pos="left">
										<output> 0.59343964 </output>
									</split>
									<split pos="right">
										<output> 0.8534928 </output>
									</split>
								</split>
								<split pos="right">
									<output> 1.3895494 </output>
								</split>
							</split>
							<split pos="right">
								<output> 0.40918368 </output>
							</split>
						</split>
						<split pos="right">
							<output> 1.0753162 </output>
						</split>
					</split>
					<split pos="right">
						<output> 0.50966585 </output>
					</split>
				</split>
			</split>
		</split>
	</tree>
	<tree id="9" weight="0.1">
		<split>
			<feature> 16 </feature>
			<threshold> 0.07692308 </threshold>
			<split pos="left">
				<feature> 74 </feature>
				<threshold> 0.015625 </threshold>
				<split pos="left">
					<feature> 96 </feature>
					<threshold> 0.0234375 </threshold>
					<split pos="left">
						<output> 0.4771173 </output>
					</split>
					<split pos="right">
						<feature> 106 </feature>
						<threshold> 0.01171875 </threshold>
						<split pos="left">
							<output> 0.47114915 </output>
						</split>
						<split pos="right">
							<feature> 78 </feature>
							<threshold> 0.015625 </threshold>
							<split pos="left">
								<output> 0.9319538 </output>
							</split>
							<split pos="right">
								<output> 0.7495932 </output>
							</split>
						</split>
					</split>
				</split>
				<split pos="right">
					<feature> 93 </feature>
					<threshold> 0.01953125 </threshold>
					<split pos="left">
						<output> 0.6665909 </output>
					</split>
					<split pos="right">
						<output> 0.4636552 </output>
					</split>
				</split>
			</split>
			<split pos="right">
				<feature> 16 </feature>
				<threshold> 0.14285715 </threshold>
				<split pos="left">
					<output> 0.36946785 </output>
				</split>
				<split pos="right">
					<feature> 16 </feature>
					<threshold> 0.23076923 </threshold>
					<split pos="left">
						<feature> 15 </feature>
						<threshold> 0.2857143 </threshold>
						<split pos="left">
							<output> 0.5890239 </output>
						</split>
						<split pos="right">
							<output> 0.80396134 </output>
						</split>
					</split>
					<split pos="right">
						<output> 0.45825565 </output>
					</split>
				</split>
			</split>
		</split>
	</tree>
	<tree id="10" weight="0.1">
		<split>
			<feature> 78 </feature>
			<threshold> 0.015625 </threshold>
			<split pos="left">
				<feature> 100 </feature>
				<threshold> 0.0234375 </threshold>
				<split pos="left">
					<output> 0.42879385 </output>
				</split>
				<split pos="right">
					<feature> 106 </feature>
					<threshold> 0.01171875 </threshold>
					<split pos="left">
						<output> 0.4137515 </output>
					</split>
					<split pos="right">
						<feature> 109 </feature>
						<threshold> 0.0078125 </threshold>
						<split pos="left">
							<output> 0.47986054 </output>
						</split>
						<split pos="right">
							<feature> 117 </feature>
							<threshold> 0.015625 </threshold>
							<split pos="left">
								<output> 0.35922596 </output>
							</split>
							<split pos="right">
								<output> 0.7806863 </output>
							</split>
						</split>
					</split>
				</split>
			</split>
			<split pos="right">
				<feature> 15 </feature>
				<threshold> 0.1 </threshold>
				<split pos="left">
					<output> 0.61457247 </output>
				</split>
				<split pos="right">
					<feature> 15 </feature>
					<threshold> 0.14285715 </threshold>
					<split pos="left">
						<output> 0.26099637 </output>
					</split>
					<split pos="right">
						<feature> 15 </feature>
						<threshold> 0.18181819 </threshold>
						<split pos="left">
							<output> 0.9358004 </output>
						</split>
						<split pos="right">
							<feature> 93 </feature>
							<threshold> 0.01171875 </threshold>
							<split pos="left">
								<output> 0.58537906 </output>
							</split>
							<split pos="right">
								<output> 0.40798172 </output>
							</split>
						</split>
					</split>
				</split>
			</split>
		</split>
	</tree>
	<tree id="11" weight="0.1">
		<split>
			<feature> 18 </feature>
			<threshold> 0.125 </threshold>
			<split pos="left">
				<feature> 18 </feature>
				<threshold> 0.0 </threshold>
				<split pos="left">
					<feature> 14 </feature>
					<threshold> 0.0 </threshold>
					<split pos="left">
						<output> 0.32441556 </output>
					</split>
					<split pos="right">
						<feature> 14 </feature>
						<threshold> 0.083333336 </threshold>
						<split pos="left">
							<output> 0.99857783 </output>
						</split>
						<split pos="right">
							<feature> 14 </feature>
							<threshold> 0.125 </threshold>
							<split pos="left">
								<output> 0.15944809 </output>
							</split>
							<split pos="right">
								<output> 0.5323029 </output>
							</split>
						</split>
					</split>
				</split>
				<split pos="right">
					<output> 0.7002566 </output>
				</split>
			</split>
			<split pos="right">
				<feature> 18 </feature>
				<threshold> 0.16666667 </threshold>
				<split pos="left">
					<output> 0.30169058 </output>
				</split>
				<split pos="right">
					<feature> 18 </feature>
					<threshold> 0.18181819 </threshold>
					<split pos="left">
						<output> 0.90921843 </output>
					</split>
					<split pos="right">
						<feature> 19 </feature>
						<threshold> 0.14285715 </threshold>
						<split pos="left">
							<output> 0.32286635 </output>
						</split>
						<split pos="right">
							<feature> 18 </feature>
							<threshold> 0.27272728 </threshold>
							<split pos="left">
								<output> 0.7271019 </output>
							</split>
							<split pos="right">
								<output> 0.41896498 </output>
							</split>
						</split>
					</split>
				</split>
			</split>
		</split>
	</tree>
	<tree id="12" weight="0.1">
		<split>
			<feature> 78 </feature>
			<threshold> 0.015625 </threshold>
			<split pos="left">
				<feature> 96 </feature>
				<threshold> 0.01953125 </threshold>
				<split pos="left">
					<output> 0.29357263 </output>
				</split>
				<split pos="right">
					<feature> 19 </feature>
					<threshold> 0.083333336 </threshold>
					<split pos="left">
						<output> 0.6676614 </output>
					</split>
					<split pos="right">
						<feature> 19 </feature>
						<threshold> 0.125 </threshold>
						<split pos="left">
							<output> 0.21996382 </output>
						</split>
						<split pos="right">
							<feature> 16 </feature>
							<threshold> 0.3846154 </threshold>
							<split pos="left">
								<feature> 15 </feature>
								<threshold> 0.25 </threshold>
								<split pos="left">
									<output> 0.49271283 </output>
								</split>
								<split pos="right">
									<output> 0.6717465 </output>
								</split>
							</split>
							<split pos="right">
								<output> 0.30048877 </output>
							</split>
						</split>
					</split>
				</split>
			</split>
			<split pos="right">
				<feature> 15 </feature>
				<threshold> 0.1 </threshold>
				<split pos="left">
					<output> 0.50371736 </output>
				</split>
				<split pos="right">
					<feature> 15 </feature>
					<threshold> 0.25 </threshold>
					<split pos="left">
						<output> 0.27694556 </output>
					</split>
					<split pos="right">
						<feature> 15 </feature>
						<threshold> 0.36363637 </threshold>
						<split pos="left">
							<output> 0.57282007 </output>
						</split>
						<split pos="right">
							<output> 0.34911364 </output>
						</split>
					</split>
				</split>
			</split>
		</split>
	</tree>
	<tree id="13" weight="0.1">
		<split>
			<feature> 87 </feature>
			<threshold> 0.0078125 </threshold>
			<split pos="left">
				<feature> 117 </feature>
				<threshold> 0.01171875 </threshold>
				<split pos="left">
					<output> 0.2521891 </output>
				</split>
				<split pos="right">
					<feature> 92 </feature>
					<threshold> 0.01953125 </threshold>
					<split pos="left">
						<output> 0.6853961 </output>
					</split>
					<split pos="right">
						<output> 0.44423473 </output>
					</split>
				</split>
			</split>
			<split pos="right">
				<feature> 119 </feature>
				<threshold> 0.01171875 </threshold>
				<split pos="left">
					<output> 0.24722666 </output>
				</split>
				<split pos="right">
					<feature> 78 </feature>
					<threshold> 0.015625 </threshold>
					<split pos="left">
						<feature> 106 </feature>
						<threshold> 0.015625 </threshold>
						<split pos="left">
							<output> 0.2477028 </output>
						</split>
						<split pos="right">
							<feature> 100 </feature>
							<threshold> 0.02734375 </threshold>
							<split pos="left">
								<output> 0.20087525 </output>
							</split>
							<split pos="right">
								<output> 0.6273208 </output>
							</split>
						</split>
					</split>
					<split pos="right">
						<feature> 93 </feature>
						<threshold> 0.015625 </threshold>
						<split pos="left">
							<output> 0.4466346 </output>
						</split>
						<split pos="right">
							<feature> 73 </feature>
							<threshold> 0.03515625 </threshold>
							<split pos="left">
								<output> 0.2095268 </output>
							</split>
							<split pos="right">
								<output> 0.3704971 </output>
							</split>
						</split>
					</split>
				</split>
			</split>
		</split>
	</tree>
	<tree id="14" weight="0.1">
		<split>
			<feature> 16 </feature>
			<threshold> 0.07692308 </threshold>
			<split pos="left">
				<feature> 18 </feature>
				<threshold> 0.125 </threshold>
				<split pos="left">
					<feature> 18 </feature>
					<threshold> 0.0 </threshold>
					<split pos="left">
						<feature> 74 </feature>
						<threshold> 0.015625 </threshold>
						<split pos="left">
							<output> 0.46568793 </output>
						</split>
						<split pos="right">
							<output> 0.2893629 </output>
						</split>
					</split>
					<split pos="right">
						<output> 0.61580515 </output>
					</split>
				</split>
				<split pos="right">
					<output> 0.3195601 </output>
				</split>
			</split>
			<split pos="right">
				<feature> 16 </feature>
				<threshold> 0.14285715 </threshold>
				<split pos="left">
					<output> 0.17956235 </output>
				</split>
				<split pos="right">
					<feature> 16 </feature>
					<threshold> 0.15384616 </threshold>
					<split pos="left">
						<feature> 106 </feature>
						<threshold> 0.0078125 </threshold>
						<split pos="left">
							<output> 0.07313879 </output>
						</split>
						<split pos="right">
							<output> 0.4983586 </output>
						</split>
					</split>
					<split pos="right">
						<feature> 16 </feature>
						<threshold> 0.2 </threshold>
						<split pos="left">
							<output> 0.11945929 </output>
						</split>
						<split pos="right">
							<feature> 16 </feature>
							<threshold> 0.23076923 </threshold>
							<split pos="left">
								<output> 0.4882822 </output>
							</split>
							<split pos="right">
								<output> 0.24734639 </output>
							</split>
						</split>
					</split>
				</split>
			</split>
		</split>
	</tree>
	<tree id="15" weight="0.1">
		<split>
			<feature> 21 </feature>
			<threshold> 0.4205114 </threshold>
			<split pos="left">
				<feature> 87 </feature>
				<threshold> 0.0078125 </threshold>
				<split pos="left">
					<output> 0.38438958 </output>
				</split>
				<split pos="right">
					<feature> 96 </feature>
					<threshold> 0.0234375 </threshold>
					<split pos="left">
						<output> 0.11942175 </output>
					</split>
					<split pos="right">
						<feature> 93 </feature>
						<threshold> 0.01171875 </threshold>
						<split pos="left">
							<output> 0.35088515 </output>
						</split>
						<split pos="right">
							<output> 0.19063793 </output>
						</split>
					</split>
				</split>
			</split>
			<split pos="right">
				<feature> 15 </feature>
				<threshold> 0.2857143 </threshold>
				<split pos="left">
					<feature> 15 </feature>
					<threshold> 0.1 </threshold>
					<split pos="left">
						<output> 0.45046806 </output>
					</split>
					<split pos="right">
						<feature> 15 </feature>
						<threshold> 0.14285715 </threshold>
						<split pos="left">
							<output> 0.112928815 </output>
						</split>
						<split pos="right">
							<feature> 15 </feature>
							<threshold> 0.2 </threshold>
							<split pos="left">
								<output> 0.374348 </output>
							</split>
							<split pos="right">
								<output> 0.18972623 </output>
							</split>
						</split>
					</split>
				</split>
				<split pos="right">
					<feature> 15 </feature>
					<threshold> 0.36363637 </threshold>
					<split pos="left">
						<output> 0.6542003 </output>
					</split>
					<split pos="right">
						<output> 0.35926995 </output>
					</split>
				</split>
			</split>
		</split>
	</tree>
	<tree id="16" weight="0.1">
		<split>
			<feature> 87 </feature>
			<threshold> 0.0078125 </threshold>
			<split pos="left">
				<feature> 117 </feature>
				<threshold> 0.01171875 </threshold>
				<split pos="left">
					<output> 0.15952502 </output>
				</split>
				<split pos="right">
					<feature> 92 </feature>
					<threshold> 0.01953125 </threshold>
					<split pos="left">
						<output> 0.5375317 </output>
					</split>
					<split pos="right">
						<output> 0.33113787 </output>
					</split>
				</split>
			</split>
			<split pos="right">
				<feature> 81 </feature>
				<threshold> 0.01171875 </threshold>
				<split pos="left">
					<output> 0.1352579 </output>
				</split>
				<split pos="right">
					<feature> 106 </feature>
					<threshold> 0.015625 </threshold>
					<split pos="left">
						<output> 0.15782607 </output>
					</split>
					<split pos="right">
						<feature> 74 </feature>
						<threshold> 0.015625 </threshold>
						<split pos="left">
							<feature> 119 </feature>
							<threshold> 0.01171875 </threshold>
							<split pos="left">
								<output> 0.15996547 </output>
							</split>
							<split pos="right">
								<feature> 71 </feature>
								<threshold> 0.01171875 </threshold>
								<split pos="left">
									<output> 0.1145397 </output>
								</split>
								<split pos="right">
									<output> 0.5062329 </output>
								</split>
							</split>
						</split>
						<split pos="right">
							<feature> 87 </feature>
							<threshold> 0.01171875 </threshold>
							<split pos="left">
								<output> 0.4416801 </output>
							</split>
							<split pos="right">
								<output> 0.19712178 </output>
							</split>
						</split>
					</split>
				</split>
			</split>
		</split>
	</tree>
	<tree id="17" weight="0.1">
		<split>
			<feature> 85 </feature>
			<threshold> 0.0078125 </threshold>
			<split pos="left">
				<feature> 106 </feature>
				<threshold> 0.0078125 </threshold>
				<split pos="left">
					<output> 0.045658853 </output>
				</split>
				<split pos="right">
					<feature> 78 </feature>
					<threshold> 0.01171875 </threshold>
					<split pos="left">
						<feature> 96 </feature>
						<threshold> 0.015625 </threshold>
						<split pos="left">
							<output> 0.1148193 </output>
						</split>
						<split pos="right">
							<output> 0.45337293 </output>
						</split>
					</split>
					<split pos="right">
						<output> 0.26215693 </output>
					</split>
				</split>
			</split>
			<split pos="right">
				<feature> 73 </feature>
				<threshold> 0.0234375 </threshold>
				<split pos="left">
					<feature> 75 </feature>
					<threshold> 0.0078125 </threshold>
					<split pos="left">
						<output> 0.29366425 </output>
					</split>
					<split pos="right">
						<output> 0.09699369 </output>
					</split>
				</split>
				<split pos="right">
					<feature> 74 </feature>
					<threshold> 0.015625 </threshold>
					<split pos="left">
						<feature> 95 </feature>
						<threshold> 0.01171875 </threshold>
						<split pos="left">
							<output> 0.19512655 </output>
						</split>
						<split pos="right">
							<output> 0.43237215 </output>
						</split>
					</split>
					<split pos="right">
						<feature> 87 </feature>
						<threshold> 0.015625 </threshold>
						<split pos="left">
							<output> 0.29735616 </output>
						</split>
						<split pos="right">
							<output> 0.1391676 </output>
						</split>
					</split>
				</split>
			</split>
		</split>
	</tree>
	<tree id="18" weight="0.1">
		<split>
			<feature> 15 </feature>
			<threshold> 0.1 </threshold>
			<split pos="left">
				<feature> 15 </feature>
				<threshold> 0.0 </threshold>
				<split pos="left">
					<output> 0.15632245 </output>
				</split>
				<split pos="right">
					<output> 0.5466568 </output>
				</split>
			</split>
			<split pos="right">
				<feature> 15 </feature>
				<threshold> 0.14285715 </threshold>
				<split pos="left">
					<output> 0.050937425 </output>
				</split>
				<split pos="right">
					<feature> 15 </feature>
					<threshold> 0.18181819 </threshold>
					<split pos="left">
						<output> 0.49978098 </output>
					</split>
					<split pos="right">
						<feature> 15 </feature>
						<threshold> 0.25 </threshold>
						<split pos="left">
							<output> 0.1521787 </output>
						</split>
						<split pos="right">
							<feature> 15 </feature>
							<threshold> 0.36363637 </threshold>
							<split pos="left">
								<output> 0.3952508 </output>
							</split>
							<split pos="right">
								<feature> 15 </feature>
								<threshold> 0.375 </threshold>
								<split pos="left">
									<output> -0.010379279 </output>
								</split>
								<split pos="right">
									<feature> 8 </feature>
									<threshold> 0.9130435 </threshold>
									<split pos="left">
										<feature> 78 </feature>
										<threshold> 0.01171875 </threshold>
										<split pos="left">
											<output> 0.40802667 </output>
										</split>
										<split pos="right">
											<output> 0.23540166 </output>
										</split>
									</split>
									<split pos="right">
										<output> 0.0653532 </output>
									</split>
								</split>
							</split>
						</split>
					</split>
				</split>
			</split>
		</split>
	</tree>
	<tree id="19" weight="0.1">
		<split>
			<feature> 21 </feature>
			<threshold> 0.5472741 </threshold>
			<split pos="left">
				<feature> 87 </feature>
				<threshold> 0.0078125 </threshold>
				<split pos="left">
					<output> 0.27369475 </output>
				</split>
				<split pos="right">
					<feature> 31 </feature>
					<threshold> 0.575726 </threshold>
					<split pos="left">
						<feature> 78 </feature>
						<threshold> 0.015625 </threshold>
						<split pos="left">
							<output> 0.16171417 </output>
						</split>
						<split pos="right">
							<output> 0.08516677 </output>
						</split>
					</split>
					<split pos="right">
						<feature> 70 </feature>
						<threshold> 0.01953125 </threshold>
						<split pos="left">
							<output> 0.25953993 </output>
						</split>
						<split pos="right">
							<output> 0.14818308 </output>
						</split>
					</split>
				</split>
			</split>
			<split pos="right">
				<feature> 56 </feature>
				<threshold> 0.52760535 </threshold>
				<split pos="left">
					<feature> 106 </feature>
					<threshold> 0.0078125 </threshold>
					<split pos="left">
						<output> 0.04008311 </output>
					</split>
					<split pos="right">
						<feature> 74 </feature>
						<threshold> 0.0078125 </threshold>
						<split pos="left">
							<output> 0.44754314 </output>
						</split>
						<split pos="right">
							<feature> 119 </feature>
							<threshold> 0.01171875 </threshold>
							<split pos="left">
								<output> 0.15926562 </output>
							</split>
							<split pos="right">
								<output> 0.3318802 </output>
							</split>
						</split>
					</split>
				</split>
				<split pos="right">
					<output> 0.18362515 </output>
				</split>
			</split>
		</split>
	</tree>
	<tree id="20" weight="0.1">
		<split>
			<feature> 19 </feature>
			<threshold> 0.083333336 </threshold>
			<split pos="left">
				<feature> 19 </feature>
				<threshold> 0.0 </threshold>
				<split pos="left">
					<feature> 109 </feature>
					<threshold> 0.01171875 </threshold>
					<split pos="left">
						<output> 0.044932492 </output>
					</split>
					<split pos="right">
						<output> 0.21189314 </output>
					</split>
				</split>
				<split pos="right">
					<feature> 19 </feature>
					<threshold> 0.071428575 </threshold>
					<split pos="left">
						<output> 0.588672 </output>
					</split>
					<split pos="right">
						<output> 0.22760889 </output>
					</split>
				</split>
			</split>
			<split pos="right">
				<feature> 19 </feature>
				<threshold> 0.125 </threshold>
				<split pos="left">
					<output> 0.03752141 </output>
				</split>
				<split pos="right">
					<feature> 98 </feature>
					<threshold> 0.015625 </threshold>
					<split pos="left">
						<feature> 16 </feature>
						<threshold> 0.3846154 </threshold>
						<split pos="left">
							<feature> 106 </feature>
							<threshold> 0.0078125 </threshold>
							<split pos="left">
								<output> 0.03829717 </output>
							</split>
							<split pos="right">
								<feature> 90 </feature>
								<threshold> 0.015625 </threshold>
								<split pos="left">
									<output> 0.37418526 </output>
								</split>
								<split pos="right">
									<output> 0.2245973 </output>
								</split>
							</split>
						</split>
						<split pos="right">
							<output> 0.08477149 </output>
						</split>
					</split>
					<split pos="right">
						<output> 0.13022117 </output>
					</split>
				</split>
			</split>
		</split>
	</tree>
	<tree id="21" weight="0.1">
		<split>
			<feature> 15 </feature>
			<threshold> 0.1 </threshold>
			<split pos="left">
				<feature> 15 </feature>
				<threshold> 0.0 </threshold>
				<split pos="left">
					<output> 0.10392203 </output>
				</split>
				<split pos="right">
					<output> 0.44162658 </output>
				</split>
			</split>
			<split pos="right">
				<feature> 15 </feature>
				<threshold> 0.14285715 </threshold>
				<split pos="left">
					<output> 0.012898164 </output>
				</split>
				<split pos="right">
					<feature> 93 </feature>
					<threshold> 0.01171875 </threshold>
					<split pos="left">
						<feature> 117 </feature>
						<threshold> 0.01171875 </threshold>
						<split pos="left">
							<output> 0.051083457 </output>
						</split>
						<split pos="right">
							<feature> 103 </feature>
							<threshold> 0.01171875 </threshold>
							<split pos="left">
								<feature> 96 </feature>
								<threshold> 0.015625 </threshold>
								<split pos="left">
									<output> 0.054326683 </output>
								</split>
								<split pos="right">
									<output> 0.3500269 </output>
								</split>
							</split>
							<split pos="right">
								<output> 0.19748542 </output>
							</split>
						</split>
					</split>
					<split pos="right">
						<feature> 15 </feature>
						<threshold> 0.18181819 </threshold>
						<split pos="left">
							<output> 0.46822727 </output>
						</split>
						<split pos="right">
							<feature> 15 </feature>
							<threshold> 0.2857143 </threshold>
							<split pos="left">
								<output> 0.07802603 </output>
							</split>
							<split pos="right">
								<output> 0.18084523 </output>
							</split>
						</split>
					</split>
				</split>
			</split>
		</split>
	</tree>
	<tree id="22" weight="0.1">
		<split>
			<feature> 21 </feature>
			<threshold> 0.4205114 </threshold>
			<split pos="left">
				<feature> 87 </feature>
				<threshold> 0.0078125 </threshold>
				<split pos="left">
					<output> 0.18416737 </output>
				</split>
				<split pos="right">
					<feature> 94 </feature>
					<threshold> 0.01171875 </threshold>
					<split pos="left">
						<output> 0.028059462 </output>
					</split>
					<split pos="right">
						<output> 0.10730533 </output>
					</split>
				</split>
			</split>
			<split pos="right">
				<feature> 56 </feature>
				<threshold> 0.52760535 </threshold>
				<split pos="left">
					<feature> 31 </feature>
					<threshold> 0.50522894 </threshold>
					<split pos="left">
						<feature> 93 </feature>
						<threshold> 0.01171875 </threshold>
						<split pos="left">
							<output> 0.2167727 </output>
						</split>
						<split pos="right">
							<output> 0.11890462 </output>
						</split>
					</split>
					<split pos="right">
						<feature> 108 </feature>
						<threshold> 0.015625 </threshold>
						<split pos="left">
							<output> 0.32692206 </output>
						</split>
						<split pos="right">
							<feature> 119 </feature>
							<threshold> 0.015625 </threshold>
							<split pos="left">
								<output> 0.13080959 </output>
							</split>
							<split pos="right">
								<output> 0.27575773 </output>
							</split>
						</split>
					</split>
				</split>
				<split pos="right">
					<feature> 15 </feature>
					<threshold> 0.2857143 </threshold>
					<split pos="left">
						<output> 0.085637644 </output>
					</split>
					<split pos="right">
						<output> 0.19383481 </output>
					</split>
				</split>
			</split>
		</split>
	</tree>
	<tree id="23" weight="0.1">
		<split>
			<feature> 16 </feature>
			<threshold> 0.07692308 </threshold>
			<split pos="left">
				<feature> 14 </feature>
				<threshold> 0.0 </threshold>
				<split pos="left">
					<output> 0.061090272 </output>
				</split>
				<split pos="right">
					<feature> 14 </feature>
					<threshold> 0.083333336 </threshold>
					<split pos="left">
						<output> 0.4669561 </output>
					</split>
					<split pos="right">
						<feature> 14 </feature>
						<threshold> 0.125 </threshold>
						<split pos="left">
							<output> -0.10987451 </output>
						</split>
						<split pos="right">
							<feature> 14 </feature>
							<threshold> 0.14285715 </threshold>
							<split pos="left">
								<output> 0.5370591 </output>
							</split>
							<split pos="right">
								<feature> 18 </feature>
								<threshold> 0.125 </threshold>
								<split pos="left">
									<feature> 16 </feature>
									<threshold> 0.0 </threshold>
									<split pos="left">
										<output> 0.14309491 </output>
									</split>
									<split pos="right">
										<output> 0.3198387 </output>
									</split>
								</split>
								<split pos="right">
									<output> 0.105701774 </output>
								</split>
							</split>
						</split>
					</split>
				</split>
			</split>
			<split pos="right">
				<feature> 78 </feature>
				<threshold> 0.01171875 </threshold>
				<split pos="left">
					<output> 0.16826038 </output>
				</split>
				<split pos="right">
					<feature> 70 </feature>
					<threshold> 0.01171875 </threshold>
					<split pos="left">
						<output> 0.14211905 </output>
					</split>
					<split pos="right">
						<output> 0.050063774 </output>
					</split>
				</split>
			</split>
		</split>
	</tree>
	<tree id="24" weight="0.1">
		<split>
			<feature> 117 </feature>
			<threshold> 0.01171875 </threshold>
			<split pos="left">
				<output> 0.010072213 </output>
			</split>
			<split pos="right">
				<feature> 74 </feature>
				<threshold> 0.0078125 </threshold>
				<split pos="left">
					<output> 0.25846133 </output>
				</split>
				<split pos="right">
					<feature> 96 </feature>
					<threshold> 0.0234375 </threshold>
					<split pos="left">
						<output> -0.021185102 </output>
					</split>
					<split pos="right">
						<feature> 108 </feature>
						<threshold> 0.015625 </threshold>
						<split pos="left">
							<feature> 109 </feature>
							<threshold> 0.0078125 </threshold>
							<split pos="left">
								<output> -0.008964837 </output>
							</split>
							<split pos="right">
								<output> 0.26371568 </output>
							</split>
						</split>
						<split pos="right">
							<feature> 78 </feature>
							<threshold> 0.01953125 </threshold>
							<split pos="left">
								<feature> 109 </feature>
								<threshold> 0.01171875 </threshold>
								<split pos="left">
									<output> 0.061082806 </output>
								</split>
								<split pos="right">
									<feature> 106 </feature>
									<threshold> 0.015625 </threshold>
									<split pos="left">
										<output> -0.044878725 </output>
									</split>
									<split pos="right">
										<output> 0.25077286 </output>
									</split>
								</split>
							</split>
							<split pos="right">
								<feature> 70 </feature>
								<threshold> 0.015625 </threshold>
								<split pos="left">
									<output> 0.18131313 </output>
								</split>
								<split pos="right">
									<output> 0.032427084 </output>
								</split>
							</split>
						</split>
					</split>
				</split>
			</split>
		</split>
	</tree>
	<tree id="25" weight="0.1">
		<split>
			<feature> 66 </feature>
			<threshold> 0.34912518 </threshold>
			<split pos="left">
				<output> 0.046321683 </output>
			</split>
			<split pos="right">
				<feature> 56 </feature>
				<threshold> 0.49838537 </threshold>
				<split pos="left">
					<feature> 16 </feature>
					<threshold> 0.07692308 </threshold>
					<split pos="left">
						<feature> 106 </feature>
						<threshold> 0.01171875 </threshold>
						<split pos="left">
							<output> 0.06671332 </output>
						</split>
						<split pos="right">
							<feature> 108 </feature>
							<threshold> 0.0234375 </threshold>
							<split pos="left">
								<output> 0.26675087 </output>
							</split>
							<split pos="right">
								<output> 0.16902925 </output>
							</split>
						</split>
					</split>
					<split pos="right">
						<feature> 16 </feature>
						<threshold> 0.14285715 </threshold>
						<split pos="left">
							<output> -1.05419866E-4 </output>
						</split>
						<split pos="right">
							<feature> 16 </feature>
							<threshold> 0.15384616 </threshold>
							<split pos="left">
								<output> 0.2415817 </output>
							</split>
							<split pos="right">
								<output> 0.10588262 </output>
							</split>
						</split>
					</split>
				</split>
				<split pos="right">
					<feature> 103 </feature>
					<threshold> 0.01171875 </threshold>
					<split pos="left">
						<output> 0.1428459 </output>
					</split>
					<split pos="right">
						<feature> 100 </feature>
						<threshold> 0.03515625 </threshold>
						<split pos="left">
							<output> -0.012746608 </output>
						</split>
						<split pos="right">
							<output> 0.07499767 </output>
						</split>
					</split>
				</split>
			</split>
		</split>
	</tree>
	<tree id="26" weight="0.1">
		<split>
			<feature> 106 </feature>
			<threshold> 0.0078125 </threshold>
			<split pos="left">
				<output> -0.044067018 </output>
			</split>
			<split pos="right">
				<feature> 74 </feature>
				<threshold> 0.0078125 </threshold>
				<split pos="left">
					<output> 0.21597327 </output>
				</split>
				<split pos="right">
					<feature> 96 </feature>
					<threshold> 0.0234375 </threshold>
					<split pos="left">
						<output> -0.02294679 </output>
					</split>
					<split pos="right">
						<feature> 109 </feature>
						<threshold> 0.0078125 </threshold>
						<split pos="left">
							<output> -0.018758325 </output>
						</split>
						<split pos="right">
							<feature> 98 </feature>
							<threshold> 0.015625 </threshold>
							<split pos="left">
								<feature> 117 </feature>
								<threshold> 0.015625 </threshold>
								<split pos="left">
									<output> -0.06650624 </output>
								</split>
								<split pos="right">
									<output> 0.253619 </output>
								</split>
							</split>
							<split pos="right">
								<feature> 109 </feature>
								<threshold> 0.01171875 </threshold>
								<split pos="left">
									<output> -0.011460312 </output>
								</split>
								<split pos="right">
									<feature> 96 </feature>
									<threshold> 0.03515625 </threshold>
									<split pos="left">
										<output> -0.077495694 </output>
									</split>
									<split pos="right">
										<feature> 85 </feature>
										<threshold> 0.01171875 </threshold>
										<split pos="left">
											<output> 0.24020933 </output>
										</split>
										<split pos="right">
											<output> 0.08265387 </output>
										</split>
									</split>
								</split>
							</split>
						</split>
					</split>
				</split>
			</split>
		</split>
	</tree>
	<tree id="27" weight="0.1">
		<split>
			<feature> 21 </feature>
			<threshold> 0.5472741 </threshold>
			<split pos="left">
				<feature> 30 </feature>
				<threshold> 0.5368969 </threshold>
				<split pos="left">
					<feature> 57 </feature>
					<threshold> 0.48236373 </threshold>
					<split pos="left">
						<output> 0.052389152 </output>
					</split>
					<split pos="right">
						<feature> 19 </feature>
						<threshold> 0.071428575 </threshold>
						<split pos="left">
							<output> 0.23000996 </output>
						</split>
						<split pos="right">
							<feature> 19 </feature>
							<threshold> 0.125 </threshold>
							<split pos="left">
								<output> 0.02228453 </output>
							</split>
							<split pos="right">
								<output> 0.15362358 </output>
							</split>
						</split>
					</split>
				</split>
				<split pos="right">
					<feature> 78 </feature>
					<threshold> 0.01171875 </threshold>
					<split pos="left">
						<output> 0.08540927 </output>
					</split>
					<split pos="right">
						<output> -1.8183618E-4 </output>
					</split>
				</split>
			</split>
			<split pos="right">
				<feature> 23 </feature>
				<threshold> 0.54820603 </threshold>
				<split pos="left">
					<feature> 106 </feature>
					<threshold> 0.0078125 </threshold>
					<split pos="left">
						<output> -0.06923684 </output>
					</split>
					<split pos="right">
						<feature> 34 </feature>
						<threshold> 0.5282181 </threshold>
						<split pos="left">
							<output> 0.21930525 </output>
						</split>
						<split pos="right">
							<output> 0.12852779 </output>
						</split>
					</split>
				</split>
				<split pos="right">
					<output> 0.077201806 </output>
				</split>
			</split>
		</split>
	</tree>
	<tree id="28" weight="0.1">
		<split>
			<feature> 31 </feature>
			<threshold> 0.59335023 </threshold>
			<split pos="left">
				<feature> 57 </feature>
				<threshold> 0.56632614 </threshold>
				<split pos="left">
					<feature> 93 </feature>
					<threshold> 0.0078125 </threshold>
					<split pos="left">
						<output> 0.1277232 </output>
					</split>
					<split pos="right">
						<feature> 74 </feature>
						<threshold> 0.01171875 </threshold>
						<split pos="left">
							<output> 0.046676558 </output>
						</split>
						<split pos="right">
							<output> -0.012774143 </output>
						</split>
					</split>
				</split>
				<split pos="right">
					<feature> 34 </feature>
					<threshold> 0.5673049 </threshold>
					<split pos="left">
						<feature> 106 </feature>
						<threshold> 0.0078125 </threshold>
						<split pos="left">
							<output> -0.11442814 </output>
						</split>
						<split pos="right">
							<output> 0.14048178 </output>
						</split>
					</split>
					<split pos="right">
						<output> 0.04526717 </output>
					</split>
				</split>
			</split>
			<split pos="right">
				<feature> 56 </feature>
				<threshold> 0.4302054 </threshold>
				<split pos="left">
					<output> 0.18715833 </output>
				</split>
				<split pos="right">
					<feature> 15 </feature>
					<threshold> 0.44444445 </threshold>
					<split pos="left">
						<feature> 15 </feature>
						<threshold> 0.4 </threshold>
						<split pos="left">
							<output> 0.08491379 </output>
						</split>
						<split pos="right">
							<output> -0.14683005 </output>
						</split>
					</split>
					<split pos="right">
						<output> 0.20672078 </output>
					</split>
				</split>
			</split>
		</split>
	</tree>
	<tree id="29" weight="0.1">
		<split>
			<feature> 18 </feature>
			<threshold> 0.375 </threshold>
			<split pos="left">
				<feature> 18 </feature>
				<threshold> 0.33333334 </threshold>
				<split pos="left">
					<feature> 18 </feature>
					<threshold> 0.27272728 </threshold>
					<split pos="left">
						<feature> 18 </feature>
						<threshold> 0.25 </threshold>
						<split pos="left">
							<feature> 15 </feature>
							<threshold> 0.2857143 </threshold>
							<split pos="left">
								<feature> 15 </feature>
								<threshold> 0.1 </threshold>
								<split pos="left">
									<output> 0.12806064 </output>
								</split>
								<split pos="right">
									<feature> 15 </feature>
									<threshold> 0.27272728 </threshold>
									<split pos="left">
										<feature> 15 </feature>
										<threshold> 0.25 </threshold>
										<split pos="left">
											<output> 0.01089082 </output>
										</split>
										<split pos="right">
											<output> 0.30483106 </output>
										</split>
									</split>
									<split pos="right">
										<output> -0.16461498 </output>
									</split>
								</split>
							</split>
							<split pos="right">
								<feature> 15 </feature>
								<threshold> 0.36363637 </threshold>
								<split pos="left">
									<output> 0.28161 </output>
								</split>
								<split pos="right">
									<output> 0.07874972 </output>
								</split>
							</split>
						</split>
						<split pos="right">
							<output> 0.5861464 </output>
						</split>
					</split>
					<split pos="right">
						<output> -0.08325035 </output>
					</split>
				</split>
				<split pos="right">
					<output> 0.34828097 </output>
				</split>
			</split>
			<split pos="right">
				<output> 0.0016362645 </output>
			</split>
		</split>
	</tree>
	<tree id="30" weight="0.1">
		<split>
			<feature> 14 </feature>
			<threshold> 0.0 </threshold>
			<split pos="left">
				<output> -0.011644058 </output>
			</split>
			<split pos="right">
				<feature> 14 </feature>
				<threshold> 0.083333336 </threshold>
				<split pos="left">
					<output> 0.33212268 </output>
				</split>
				<split pos="right">
					<feature> 14 </feature>
					<threshold> 0.125 </threshold>
					<split pos="left">
						<output> -0.09285626 </output>
					</split>
					<split pos="right">
						<feature> 14 </feature>
						<threshold> 0.14285715 </threshold>
						<split pos="left">
							<output> 0.41914093 </output>
						</split>
						<split pos="right">
							<feature> 18 </feature>
							<threshold> 0.09090909 </threshold>
							<split pos="left">
								<feature> 18 </feature>
								<threshold> 0.0 </threshold>
								<split pos="left">
									<feature> 31 </feature>
									<threshold> 0.33779845 </threshold>
									<split pos="left">
										<output> -0.12891325 </output>
									</split>
									<split pos="right">
										<output> 0.099652484 </output>
									</split>
								</split>
								<split pos="right">
									<output> 0.36781874 </output>
								</split>
							</split>
							<split pos="right">
								<feature> 98 </feature>
								<threshold> 0.015625 </threshold>
								<split pos="left">
									<feature> 72 </feature>
									<threshold> 0.0234375 </threshold>
									<split pos="left">
										<output> 0.018370453 </output>
									</split>
									<split pos="right">
										<output> 0.12346135 </output>
									</split>
								</split>
								<split pos="right">
									<output> 0.01620512 </output>
								</split>
							</split>
						</split>
					</split>
				</split>
			</split>
		</split>
	</tree>
	<tree id="31" weight="0.1">
		<split>
			<feature> 21 </feature>
			<threshold> 0.52011067 </threshold>
			<split pos="left">
				<feature> 93 </feature>
				<threshold> 0.01171875 </threshold>
				<split pos="left">
					<feature> 117 </feature>
					<threshold> 0.015625 </threshold>
					<split pos="left">
						<output> -0.0038300015 </output>
					</split>
					<split pos="right">
						<feature> 103 </feature>
						<threshold> 0.01171875 </threshold>
						<split pos="left">
							<output> 0.17637312 </output>
						</split>
						<split pos="right">
							<output> 0.032081585 </output>
						</split>
					</split>
				</split>
				<split pos="right">
					<feature> 100 </feature>
					<threshold> 0.0390625 </threshold>
					<split pos="left">
						<output> -0.029066758 </output>
					</split>
					<split pos="right">
						<feature> 94 </feature>
						<threshold> 0.01171875 </threshold>
						<split pos="left">
							<output> -0.081231706 </output>
						</split>
						<split pos="right">
							<feature> 87 </feature>
							<threshold> 0.015625 </threshold>
							<split pos="left">
								<output> 0.13928126 </output>
							</split>
							<split pos="right">
								<output> 0.010411443 </output>
							</split>
						</split>
					</split>
				</split>
			</split>
			<split pos="right">
				<feature> 23 </feature>
				<threshold> 0.57092303 </threshold>
				<split pos="left">
					<feature> 19 </feature>
					<threshold> 0.083333336 </threshold>
					<split pos="left">
						<output> 0.16301076 </output>
					</split>
					<split pos="right">
						<output> 0.08437874 </output>
					</split>
				</split>
				<split pos="right">
					<output> 0.038332853 </output>
				</split>
			</split>
		</split>
	</tree>
	<tree id="32" weight="0.1">
		<split>
			<feature> 106 </feature>
			<threshold> 0.0078125 </threshold>
			<split pos="left">
				<output> -0.064889 </output>
			</split>
			<split pos="right">
				<feature> 74 </feature>
				<threshold> 0.0078125 </threshold>
				<split pos="left">
					<output> 0.1482337 </output>
				</split>
				<split pos="right">
					<feature> 83 </feature>
					<threshold> 0.015625 </threshold>
					<split pos="left">
						<output> -0.029288558 </output>
					</split>
					<split pos="right">
						<feature> 106 </feature>
						<threshold> 0.01171875 </threshold>
						<split pos="left">
							<output> -0.09834047 </output>
						</split>
						<split pos="right">
							<feature> 74 </feature>
							<threshold> 0.01171875 </threshold>
							<split pos="left">
								<output> 0.16879052 </output>
							</split>
							<split pos="right">
								<feature> 96 </feature>
								<threshold> 0.03515625 </threshold>
								<split pos="left">
									<output> -0.046419613 </output>
								</split>
								<split pos="right">
									<feature> 93 </feature>
									<threshold> 0.015625 </threshold>
									<split pos="left">
										<feature> 109 </feature>
										<threshold> 0.01171875 </threshold>
										<split pos="left">
											<output> -0.011653404 </output>
										</split>
										<split pos="right">
											<output> 0.18273063 </output>
										</split>
									</split>
									<split pos="right">
										<feature> 78 </feature>
										<threshold> 0.0234375 </threshold>
										<split pos="left">
											<output> 0.07551777 </output>
										</split>
										<split pos="right">
											<output> -0.052174468 </output>
										</split>
									</split>
								</split>
							</split>
						</split>
					</split>
				</split>
			</split>
		</split>
	</tree>
	<tree id="33" weight="0.1">
		<split>
			<feature> 31 </feature>
			<threshold> 0.50522894 </threshold>
			<split pos="left">
				<feature> 78 </feature>
				<threshold> 0.01171875 </threshold>
				<split pos="left">
					<output> 0.056769177 </output>
				</split>
				<split pos="right">
					<feature> 83 </feature>
					<threshold> 0.01953125 </threshold>
					<split pos="left">
						<output> -0.05452474 </output>
					</split>
					<split pos="right">
						<output> 0.026314657 </output>
					</split>
				</split>
			</split>
			<split pos="right">
				<feature> 15 </feature>
				<threshold> 0.2857143 </threshold>
				<split pos="left">
					<feature> 15 </feature>
					<threshold> 0.27272728 </threshold>
					<split pos="left">
						<feature> 15 </feature>
						<threshold> 0.25 </threshold>
						<split pos="left">
							<feature> 15 </feature>
							<threshold> 0.2 </threshold>
							<split pos="left">
								<feature> 56 </feature>
								<threshold> 0.54708534 </threshold>
								<split pos="left">
									<output> 0.09822276 </output>
								</split>
								<split pos="right">
									<output> 0.0059231296 </output>
								</split>
							</split>
							<split pos="right">
								<output> -0.107754365 </output>
							</split>
						</split>
						<split pos="right">
							<output> 0.2736389 </output>
						</split>
					</split>
					<split pos="right">
						<output> -0.15852591 </output>
					</split>
				</split>
				<split pos="right">
					<feature> 15 </feature>
					<threshold> 0.3 </threshold>
					<split pos="left">
						<output> 0.2810194 </output>
					</split>
					<split pos="right">
						<output> 0.08669386 </output>
					</split>
				</split>
			</split>
		</split>
	</tree>
	<tree id="34" weight="0.1">
		<split>
			<feature> 30 </feature>
			<threshold> 0.52633244 </threshold>
			<split pos="left">
				<feature> 18 </feature>
				<threshold> 0.09090909 </threshold>
				<split pos="left">
					<feature> 18 </feature>
					<threshold> 0.0 </threshold>
					<split pos="left">
						<feature> 100 </feature>
						<threshold> 0.03515625 </threshold>
						<split pos="left">
							<output> -0.034971416 </output>
						</split>
						<split pos="right">
							<output> 0.11349595 </output>
						</split>
					</split>
					<split pos="right">
						<output> 0.30397627 </output>
					</split>
				</split>
				<split pos="right">
					<feature> 18 </feature>
					<threshold> 0.16666667 </threshold>
					<split pos="left">
						<output> -0.0073693525 </output>
					</split>
					<split pos="right">
						<feature> 18 </feature>
						<threshold> 0.18181819 </threshold>
						<split pos="left">
							<output> 0.27777624 </output>
						</split>
						<split pos="right">
							<feature> 19 </feature>
							<threshold> 0.14285715 </threshold>
							<split pos="left">
								<output> -0.032956097 </output>
							</split>
							<split pos="right">
								<output> 0.078301564 </output>
							</split>
						</split>
					</split>
				</split>
			</split>
			<split pos="right">
				<feature> 21 </feature>
				<threshold> 0.5563286 </threshold>
				<split pos="left">
					<feature> 110 </feature>
					<threshold> 0.015625 </threshold>
					<split pos="left">
						<output> 0.020903442 </output>
					</split>
					<split pos="right">
						<output> -0.038218774 </output>
					</split>
				</split>
				<split pos="right">
					<output> 0.055303074 </output>
				</split>
			</split>
		</split>
	</tree>
	<tree id="35" weight="0.1">
		<split>
			<feature> 67 </feature>
			<threshold> 0.36876616 </threshold>
			<split pos="left">
				<output> -0.012103633 </output>
			</split>
			<split pos="right">
				<feature> 30 </feature>
				<threshold> 0.42068797 </threshold>
				<split pos="left">
					<feature> 19 </feature>
					<threshold> 0.071428575 </threshold>
					<split pos="left">
						<output> 0.18540855 </output>
					</split>
					<split pos="right">
						<feature> 19 </feature>
						<threshold> 0.125 </threshold>
						<split pos="left">
							<output> 0.0063125635 </output>
						</split>
						<split pos="right">
							<output> 0.10668165 </output>
						</split>
					</split>
				</split>
				<split pos="right">
					<feature> 34 </feature>
					<threshold> 0.6063917 </threshold>
					<split pos="left">
						<feature> 56 </feature>
						<threshold> 0.49838537 </threshold>
						<split pos="left">
							<feature> 119 </feature>
							<threshold> 0.01171875 </threshold>
							<split pos="left">
								<output> 0.017444825 </output>
							</split>
							<split pos="right">
								<feature> 81 </feature>
								<threshold> 0.01171875 </threshold>
								<split pos="left">
									<output> -0.046923477 </output>
								</split>
								<split pos="right">
									<output> 0.11619903 </output>
								</split>
							</split>
						</split>
						<split pos="right">
							<output> 0.006270195 </output>
						</split>
					</split>
					<split pos="right">
						<feature> 87 </feature>
						<threshold> 0.0078125 </threshold>
						<split pos="left">
							<output> 0.057646576 </output>
						</split>
						<split pos="right">
							<output> -0.028535256 </output>
						</split>
					</split>
				</split>
			</split>
		</split>
	</tree>
	<tree id="36" weight="0.1">
		<split>
			<feature> 14 </feature>
			<threshold> 0.0 </threshold>
			<split pos="left">
				<output> -0.02885087 </output>
			</split>
			<split pos="right">
				<feature> 14 </feature>
				<threshold> 0.083333336 </threshold>
				<split pos="left">
					<output> 0.25730246 </output>
				</split>
				<split pos="right">
					<feature> 14 </feature>
					<threshold> 0.125 </threshold>
					<split pos="left">
						<output> -0.098130815 </output>
					</split>
					<split pos="right">
						<feature> 14 </feature>
						<threshold> 0.14285715 </threshold>
						<split pos="left">
							<output> 0.32345223 </output>
						</split>
						<split pos="right">
							<feature> 100 </feature>
							<threshold> 0.01953125 </threshold>
							<split pos="left">
								<output> -0.027920967 </output>
							</split>
							<split pos="right">
								<feature> 98 </feature>
								<threshold> 0.015625 </threshold>
								<split pos="left">
									<feature> 106 </feature>
									<threshold> 0.0078125 </threshold>
									<split pos="left">
										<output> -0.12612374 </output>
									</split>
									<split pos="right">
										<feature> 90 </feature>
										<threshold> 0.015625 </threshold>
										<split pos="left">
											<output> 0.14832291 </output>
										</split>
										<split pos="right">
											<output> 0.035882067 </output>
										</split>
									</split>
								</split>
								<split pos="right">
									<feature> 109 </feature>
									<threshold> 0.01171875 </threshold>
									<split pos="left">
										<output> -0.044703163 </output>
									</split>
									<split pos="right">
										<output> 0.05803384 </output>
									</split>
								</split>
							</split>
						</split>
					</split>
				</split>
			</split>
		</split>
	</tree>
	<tree id="37" weight="0.1">
		<split>
			<feature> 31 </feature>
			<threshold> 0.59335023 </threshold>
			<split pos="left">
				<feature> 78 </feature>
				<threshold> 0.01171875 </threshold>
				<split pos="left">
					<output> 0.050259233 </output>
				</split>
				<split pos="right">
					<feature> 100 </feature>
					<threshold> 0.03515625 </threshold>
					<split pos="left">
						<output> -0.05375098 </output>
					</split>
					<split pos="right">
						<feature> 94 </feature>
						<threshold> 0.01171875 </threshold>
						<split pos="left">
							<output> -0.088196486 </output>
						</split>
						<split pos="right">
							<feature> 74 </feature>
							<threshold> 0.015625 </threshold>
							<split pos="left">
								<output> 0.10340967 </output>
							</split>
							<split pos="right">
								<output> -0.0025248146 </output>
							</split>
						</split>
					</split>
				</split>
			</split>
			<split pos="right">
				<feature> 108 </feature>
				<threshold> 0.0078125 </threshold>
				<split pos="left">
					<output> 0.1964497 </output>
				</split>
				<split pos="right">
					<feature> 109 </feature>
					<threshold> 0.0078125 </threshold>
					<split pos="left">
						<output> -0.034759447 </output>
					</split>
					<split pos="right">
						<feature> 117 </feature>
						<threshold> 0.015625 </threshold>
						<split pos="left">
							<output> -0.107905105 </output>
						</split>
						<split pos="right">
							<feature> 108 </feature>
							<threshold> 0.015625 </threshold>
							<split pos="left">
								<output> 0.15824056 </output>
							</split>
							<split pos="right">
								<output> 0.053578697 </output>
							</split>
						</split>
					</split>
				</split>
			</split>
		</split>
	</tree>
	<tree id="38" weight="0.1">
		<split>
			<feature> 103 </feature>
			<threshold> 0.0078125 </threshold>
			<split pos="left">
				<feature> 70 </feature>
				<threshold> 0.01171875 </threshold>
				<split pos="left">
					<output> 0.15375835 </output>
				</split>
				<split pos="right">
					<output> -0.008290372 </output>
				</split>
			</split>
			<split pos="right">
				<feature> 106 </feature>
				<threshold> 0.01171875 </threshold>
				<split pos="left">
					<output> -0.068394534 </output>
				</split>
				<split pos="right">
					<feature> 91 </feature>
					<threshold> 0.01171875 </threshold>
					<split pos="left">
						<output> -0.0723027 </output>
					</split>
					<split pos="right">
						<feature> 74 </feature>
						<threshold> 0.01171875 </threshold>
						<split pos="left">
							<feature> 73 </feature>
							<threshold> 0.015625 </threshold>
							<split pos="left">
								<output> -0.12794672 </output>
							</split>
							<split pos="right">
								<output> 0.13681683 </output>
							</split>
						</split>
						<split pos="right">
							<feature> 96 </feature>
							<threshold> 0.03515625 </threshold>
							<split pos="left">
								<output> -0.053486902 </output>
							</split>
							<split pos="right">
								<feature> 94 </feature>
								<threshold> 0.01171875 </threshold>
								<split pos="left">
									<output> -0.09329451 </output>
								</split>
								<split pos="right">
									<feature> 85 </feature>
									<threshold> 0.01171875 </threshold>
									<split pos="left">
										<output> 0.12614834 </output>
									</split>
									<split pos="right">
										<output> 0.008872784 </output>
									</split>
								</split>
							</split>
						</split>
					</split>
				</split>
			</split>
		</split>
	</tree>
	<tree id="39" weight="0.1">
		<split>
			<feature> 82 </feature>
			<threshold> 0.0078125 </threshold>
			<split pos="left">
				<feature> 112 </feature>
				<threshold> 0.0078125 </threshold>
				<split pos="left">
					<output> -0.036323443 </output>
				</split>
				<split pos="right">
					<feature> 117 </feature>
					<threshold> 0.01171875 </threshold>
					<split pos="left">
						<output> -0.088789664 </output>
					</split>
					<split pos="right">
						<feature> 98 </feature>
						<threshold> 0.01171875 </threshold>
						<split pos="left">
							<output> 0.21264656 </output>
						</split>
						<split pos="right">
							<output> 0.05098798 </output>
						</split>
					</split>
				</split>
			</split>
			<split pos="right">
				<feature> 73 </feature>
				<threshold> 0.01953125 </threshold>
				<split pos="left">
					<output> -0.03972181 </output>
				</split>
				<split pos="right">
					<feature> 81 </feature>
					<threshold> 0.01171875 </threshold>
					<split pos="left">
						<output> -0.06274156 </output>
					</split>
					<split pos="right">
						<feature> 87 </feature>
						<threshold> 0.01171875 </threshold>
						<split pos="left">
							<output> 0.11175728 </output>
						</split>
						<split pos="right">
							<feature> 119 </feature>
							<threshold> 0.015625 </threshold>
							<split pos="left">
								<output> -0.05567132 </output>
							</split>
							<split pos="right">
								<feature> 74 </feature>
								<threshold> 0.015625 </threshold>
								<split pos="left">
									<output> 0.13636374 </output>
								</split>
								<split pos="right">
									<output> 0.0011723979 </output>
								</split>
							</split>
						</split>
					</split>
				</split>
			</split>
		</split>
	</tree>
	<tree id="40" weight="0.1">
		<split>
			<feature> 118 </feature>
			<threshold> 0.0078125 </threshold>
			<split pos="left">
				<output> 0.09718206 </output>
			</split>
			<split pos="right">
				<feature> 94 </feature>
				<threshold> 0.0078125 </threshold>
				<split pos="left">
					<output> -0.07365701 </output>
				</split>
				<split pos="right">
					<feature> 100 </feature>
					<threshold> 0.0234375 </threshold>
					<split pos="left">
						<output> -0.05074317 </output>
					</split>
					<split pos="right">
						<feature> 92 </feature>
						<threshold> 0.0234375 </threshold>
						<split pos="left">
							<feature> 85 </feature>
							<threshold> 0.0078125 </threshold>
							<split pos="left">
								<output> 0.17072462 </output>
							</split>
							<split pos="right">
								<output> 0.044341575 </output>
							</split>
						</split>
						<split pos="right">
							<feature> 119 </feature>
							<threshold> 0.015625 </threshold>
							<split pos="left">
								<output> -0.03144004 </output>
							</split>
							<split pos="right">
								<feature> 72 </feature>
								<threshold> 0.0390625 </threshold>
								<split pos="left">
									<output> -0.068035364 </output>
								</split>
								<split pos="right">
									<feature> 81 </feature>
									<threshold> 0.015625 </threshold>
									<split pos="left">
										<output> -0.10044534 </output>
									</split>
									<split pos="right">
										<feature> 74 </feature>
										<threshold> 0.01953125 </threshold>
										<split pos="left">
											<output> 0.15238068 </output>
										</split>
										<split pos="right">
											<output> 0.0028109811 </output>
										</split>
									</split>
								</split>
							</split>
						</split>
					</split>
				</split>
			</split>
		</split>
	</tree>
	<tree id="41" weight="0.1">
		<split>
			<feature> 29 </feature>
			<threshold> 0.65664893 </threshold>
			<split pos="left">
				<feature> 41 </feature>
				<threshold> 0.49830636 </threshold>
				<split pos="left">
					<feature> 118 </feature>
					<threshold> 0.0078125 </threshold>
					<split pos="left">
						<output> 0.07417019 </output>
					</split>
					<split pos="right">
						<feature> 94 </feature>
						<threshold> 0.0078125 </threshold>
						<split pos="left">
							<output> -0.1106825 </output>
						</split>
						<split pos="right">
							<feature> 109 </feature>
							<threshold> 0.0078125 </threshold>
							<split pos="left">
								<output> -0.068998225 </output>
							</split>
							<split pos="right">
								<feature> 110 </feature>
								<threshold> 0.015625 </threshold>
								<split pos="left">
									<output> 0.040598143 </output>
								</split>
								<split pos="right">
									<feature> 111 </feature>
									<threshold> 0.0234375 </threshold>
									<split pos="left">
										<output> -0.07722229 </output>
									</split>
									<split pos="right">
										<output> 0.0033408438 </output>
									</split>
								</split>
							</split>
						</split>
					</split>
				</split>
				<split pos="right">
					<feature> 52 </feature>
					<threshold> 0.44212887 </threshold>
					<split pos="left">
						<output> 0.0073627606 </output>
					</split>
					<split pos="right">
						<output> 0.07408204 </output>
					</split>
				</split>
			</split>
			<split pos="right">
				<feature> 103 </feature>
				<threshold> 0.0078125 </threshold>
				<split pos="left">
					<output> 0.14934306 </output>
				</split>
				<split pos="right">
					<output> 0.0523485 </output>
				</split>
			</split>
		</split>
	</tree>
	<tree id="42" weight="0.1">
		<split>
			<feature> 30 </feature>
			<threshold> 0.4946391 </threshold>
			<split pos="left">
				<feature> 29 </feature>
				<threshold> 0.50124925 </threshold>
				<split pos="left">
					<feature> 21 </feature>
					<threshold> 0.48389277 </threshold>
					<split pos="left">
						<output> -0.008881057 </output>
					</split>
					<split pos="right">
						<output> 0.0524256 </output>
					</split>
				</split>
				<split pos="right">
					<feature> 19 </feature>
					<threshold> 0.071428575 </threshold>
					<split pos="left">
						<output> 0.1529752 </output>
					</split>
					<split pos="right">
						<feature> 19 </feature>
						<threshold> 0.125 </threshold>
						<split pos="left">
							<output> -0.011553009 </output>
						</split>
						<split pos="right">
							<feature> 103 </feature>
							<threshold> 0.0078125 </threshold>
							<split pos="left">
								<output> 0.18158042 </output>
							</split>
							<split pos="right">
								<output> 0.053771075 </output>
							</split>
						</split>
					</split>
				</split>
			</split>
			<split pos="right">
				<feature> 23 </feature>
				<threshold> 0.55956453 </threshold>
				<split pos="left">
					<feature> 39 </feature>
					<threshold> 0.43430388 </threshold>
					<split pos="left">
						<output> 0.060537305 </output>
					</split>
					<split pos="right">
						<feature> 34 </feature>
						<threshold> 0.7041088 </threshold>
						<split pos="left">
							<output> 0.0069770757 </output>
						</split>
						<split pos="right">
							<output> -0.07221166 </output>
						</split>
					</split>
				</split>
				<split pos="right">
					<output> -0.03794763 </output>
				</split>
			</split>
		</split>
	</tree>
	<tree id="43" weight="0.1">
		<split>
			<feature> 83 </feature>
			<threshold> 0.0078125 </threshold>
			<split pos="left">
				<output> -0.09688936 </output>
			</split>
			<split pos="right">
				<feature> 88 </feature>
				<threshold> 0.0078125 </threshold>
				<split pos="left">
					<output> 0.14165004 </output>
				</split>
				<split pos="right">
					<feature> 106 </feature>
					<threshold> 0.0078125 </threshold>
					<split pos="left">
						<output> -0.14569058 </output>
					</split>
					<split pos="right">
						<feature> 74 </feature>
						<threshold> 0.0078125 </threshold>
						<split pos="left">
							<output> 0.10489814 </output>
						</split>
						<split pos="right">
							<feature> 94 </feature>
							<threshold> 0.0078125 </threshold>
							<split pos="left">
								<output> -0.09747207 </output>
							</split>
							<split pos="right">
								<feature> 96 </feature>
								<threshold> 0.0234375 </threshold>
								<split pos="left">
									<output> -0.0648579 </output>
								</split>
								<split pos="right">
									<feature> 103 </feature>
									<threshold> 0.01171875 </threshold>
									<split pos="left">
										<output> 0.09407524 </output>
									</split>
									<split pos="right">
										<feature> 81 </feature>
										<threshold> 0.015625 </threshold>
										<split pos="left">
											<output> -0.06012797 </output>
										</split>
										<split pos="right">
											<feature> 100 </feature>
											<threshold> 0.03515625 </threshold>
											<split pos="left">
												<output> -0.09215572 </output>
											</split>
											<split pos="right">
												<output> 0.05129123 </output>
											</split>
										</split>
									</split>
								</split>
							</split>
						</split>
					</split>
				</split>
			</split>
		</split>
	</tree>
	<tree id="44" weight="0.1">
		<split>
			<feature> 108 </feature>
			<threshold> 0.01171875 </threshold>
			<split pos="left">
				<feature> 117 </feature>
				<threshold> 0.01171875 </threshold>
				<split pos="left">
					<output> -0.040522344 </output>
				</split>
				<split pos="right">
					<feature> 83 </feature>
					<threshold> 0.0078125 </threshold>
					<split pos="left">
						<output> -0.12379664 </output>
					</split>
					<split pos="right">
						<output> 0.09808587 </output>
					</split>
				</split>
			</split>
			<split pos="right">
				<feature> 100 </feature>
				<threshold> 0.03515625 </threshold>
				<split pos="left">
					<feature> 87 </feature>
					<threshold> 0.0078125 </threshold>
					<split pos="left">
						<output> 0.056411225 </output>
					</split>
					<split pos="right">
						<output> -0.053822875 </output>
					</split>
				</split>
				<split pos="right">
					<feature> 119 </feature>
					<threshold> 0.015625 </threshold>
					<split pos="left">
						<feature> 70 </feature>
						<threshold> 0.015625 </threshold>
						<split pos="left">
							<output> 0.047165412 </output>
						</split>
						<split pos="right">
							<output> -0.076476924 </output>
						</split>
					</split>
					<split pos="right">
						<feature> 81 </feature>
						<threshold> 0.015625 </threshold>
						<split pos="left">
							<output> -0.0614694 </output>
						</split>
						<split pos="right">
							<feature> 74 </feature>
							<threshold> 0.01953125 </threshold>
							<split pos="left">
								<output> 0.11540432 </output>
							</split>
							<split pos="right">
								<output> -0.0042277537 </output>
							</split>
						</split>
					</split>
				</split>
			</split>
		</split>
	</tree>
	<tree id="45" weight="0.1">
		<split>
			<feature> 30 </feature>
			<threshold> 0.4523813 </threshold>
			<split pos="left">
				<feature> 67 </feature>
				<threshold> 0.3200079 </threshold>
				<split pos="left">
					<output> -0.020089436 </output>
				</split>
				<split pos="right">
					<feature> 15 </feature>
					<threshold> 0.44444445 </threshold>
					<split pos="left">
						<feature> 15 </feature>
						<threshold> 0.36363637 </threshold>
						<split pos="left">
							<feature> 15 </feature>
							<threshold> 0.2857143 </threshold>
							<split pos="left">
								<output> 0.031525098 </output>
							</split>
							<split pos="right">
								<output> 0.18140759 </output>
							</split>
						</split>
						<split pos="right">
							<output> -0.043261647 </output>
						</split>
					</split>
					<split pos="right">
						<output> 0.122780375 </output>
					</split>
				</split>
			</split>
			<split pos="right">
				<feature> 23 </feature>
				<threshold> 0.55956453 </threshold>
				<split pos="left">
					<feature> 21 </feature>
					<threshold> 0.5563286 </threshold>
					<split pos="left">
						<feature> 45 </feature>
						<threshold> 0.45273226 </threshold>
						<split pos="left">
							<output> 0.01565028 </output>
						</split>
						<split pos="right">
							<output> -0.03371274 </output>
						</split>
					</split>
					<split pos="right">
						<output> 0.050961696 </output>
					</split>
				</split>
				<split pos="right">
					<feature> 15 </feature>
					<threshold> 0.0 </threshold>
					<split pos="left">
						<output> -0.10277975 </output>
					</split>
					<split pos="right">
						<output> -0.021536298 </output>
					</split>
				</split>
			</split>
		</split>
	</tree>
	<tree id="46" weight="0.1">
		<split>
			<feature> 30 </feature>
			<threshold> 0.5580258 </threshold>
			<split pos="left">
				<feature> 18 </feature>
				<threshold> 0.09090909 </threshold>
				<split pos="left">
					<feature> 18 </feature>
					<threshold> 0.0 </threshold>
					<split pos="left">
						<feature> 117 </feature>
						<threshold> 0.02734375 </threshold>
						<split pos="left">
							<output> -0.030142764 </output>
						</split>
						<split pos="right">
							<output> 0.06355961 </output>
						</split>
					</split>
					<split pos="right">
						<output> 0.2050227 </output>
					</split>
				</split>
				<split pos="right">
					<feature> 18 </feature>
					<threshold> 0.14285715 </threshold>
					<split pos="left">
						<output> -0.03446169 </output>
					</split>
					<split pos="right">
						<feature> 14 </feature>
						<threshold> 0.2 </threshold>
						<split pos="left">
							<output> -0.015039334 </output>
						</split>
						<split pos="right">
							<feature> 18 </feature>
							<threshold> 0.27272728 </threshold>
							<split pos="left">
								<output> 0.12835027 </output>
							</split>
							<split pos="right">
								<output> 0.011715852 </output>
							</split>
						</split>
					</split>
				</split>
			</split>
			<split pos="right">
				<feature> 81 </feature>
				<threshold> 0.0078125 </threshold>
				<split pos="left">
					<output> -0.09888895 </output>
				</split>
				<split pos="right">
					<feature> 19 </feature>
					<threshold> 0.14285715 </threshold>
					<split pos="left">
						<output> -0.026349647 </output>
					</split>
					<split pos="right">
						<output> 0.02880088 </output>
					</split>
				</split>
			</split>
		</split>
	</tree>
	<tree id="47" weight="0.1">
		<split>
			<feature> 112 </feature>
			<threshold> 0.03125 </threshold>
			<split pos="left">
				<feature> 112 </feature>
				<threshold> 0.0078125 </threshold>
				<split pos="left">
					<output> -0.043701928 </output>
				</split>
				<split pos="right">
					<feature> 82 </feature>
					<threshold> 0.0078125 </threshold>
					<split pos="left">
						<output> 0.09244447 </output>
					</split>
					<split pos="right">
						<feature> 106 </feature>
						<threshold> 0.01171875 </threshold>
						<split pos="left">
							<output> -0.05698961 </output>
						</split>
						<split pos="right">
							<feature> 83 </feature>
							<threshold> 0.015625 </threshold>
							<split pos="left">
								<output> -0.053577367 </output>
							</split>
							<split pos="right">
								<feature> 74 </feature>
								<threshold> 0.01171875 </threshold>
								<split pos="left">
									<output> 0.09182427 </output>
								</split>
								<split pos="right">
									<feature> 111 </feature>
									<threshold> 0.0234375 </threshold>
									<split pos="left">
										<output> -0.04448901 </output>
									</split>
									<split pos="right">
										<feature> 96 </feature>
										<threshold> 0.0390625 </threshold>
										<split pos="left">
											<output> -0.077149585 </output>
										</split>
										<split pos="right">
											<output> 0.07204524 </output>
										</split>
									</split>
								</split>
							</split>
						</split>
					</split>
				</split>
			</split>
			<split pos="right">
				<feature> 75 </feature>
				<threshold> 0.015625 </threshold>
				<split pos="left">
					<output> 7.542727E-4 </output>
				</split>
				<split pos="right">
					<output> -0.059380405 </output>
				</split>
			</split>
		</split>
	</tree>
	<tree id="48" weight="0.1">
		<split>
			<feature> 98 </feature>
			<threshold> 0.01171875 </threshold>
			<split pos="left">
				<feature> 96 </feature>
				<threshold> 0.015625 </threshold>
				<split pos="left">
					<output> -0.03741164 </output>
				</split>
				<split pos="right">
					<output> 0.072749965 </output>
				</split>
			</split>
			<split pos="right">
				<feature> 73 </feature>
				<threshold> 0.015625 </threshold>
				<split pos="left">
					<output> -0.08613242 </output>
				</split>
				<split pos="right">
					<feature> 106 </feature>
					<threshold> 0.01171875 </threshold>
					<split pos="left">
						<output> -0.1167961 </output>
					</split>
					<split pos="right">
						<feature> 70 </feature>
						<threshold> 0.015625 </threshold>
						<split pos="left">
							<feature> 103 </feature>
							<threshold> 0.01171875 </threshold>
							<split pos="left">
								<output> 0.12933733 </output>
							</split>
							<split pos="right">
								<output> 0.014203601 </output>
							</split>
						</split>
						<split pos="right">
							<feature> 91 </feature>
							<threshold> 0.01953125 </threshold>
							<split pos="left">
								<output> -0.07195446 </output>
							</split>
							<split pos="right">
								<feature> 119 </feature>
								<threshold> 0.015625 </threshold>
								<split pos="left">
									<output> -0.060255893 </output>
								</split>
								<split pos="right">
									<feature> 93 </feature>
									<threshold> 0.01953125 </threshold>
									<split pos="left">
										<output> 0.10833671 </output>
									</split>
									<split pos="right">
										<output> -0.018904101 </output>
									</split>
								</split>
							</split>
						</split>
					</split>
				</split>
			</split>
		</split>
	</tree>
	<tree id="49" weight="0.1">
		<split>
			<feature> 30 </feature>
			<threshold> 0.5580258 </threshold>
			<split pos="left">
				<feature> 18 </feature>
				<threshold> 0.09090909 </threshold>
				<split pos="left">
					<feature> 18 </feature>
					<threshold> 0.0 </threshold>
					<split pos="left">
						<feature> 15 </feature>
						<threshold> 0.1 </threshold>
						<split pos="left">
							<output> 0.11040468 </output>
						</split>
						<split pos="right">
							<output> 2.3224017E-4 </output>
						</split>
					</split>
					<split pos="right">
						<output> 0.17563343 </output>
					</split>
				</split>
				<split pos="right">
					<feature> 18 </feature>
					<threshold> 0.14285715 </threshold>
					<split pos="left">
						<output> -0.033405222 </output>
					</split>
					<split pos="right">
						<feature> 14 </feature>
						<threshold> 0.2 </threshold>
						<split pos="left">
							<output> -0.013448336 </output>
						</split>
						<split pos="right">
							<feature> 14 </feature>
							<threshold> 0.21428572 </threshold>
							<split pos="left">
								<output> 0.28748947 </output>
							</split>
							<split pos="right">
								<feature> 18 </feature>
								<threshold> 0.27272728 </threshold>
								<split pos="left">
									<output> 0.09575756 </output>
								</split>
								<split pos="right">
									<output> 0.0060028653 </output>
								</split>
							</split>
						</split>
					</split>
				</split>
			</split>
			<split pos="right">
				<feature> 21 </feature>
				<threshold> 0.5563286 </threshold>
				<split pos="left">
					<output> -0.032516308 </output>
				</split>
				<split pos="right">
					<output> 0.012908851 </output>
				</split>
			</split>
		</split>
	</tree>
	<tree id="50" weight="0.1">
		<split>
			<feature> 34 </feature>
			<threshold> 0.5868483 </threshold>
			<split pos="left">
				<feature> 57 </feature>
				<threshold> 0.5243449 </threshold>
				<split pos="left">
					<feature> 14 </feature>
					<threshold> 0.22222222 </threshold>
					<split pos="left">
						<output> -0.026052056 </output>
					</split>
					<split pos="right">
						<output> 0.022764418 </output>
					</split>
				</split>
				<split pos="right">
					<feature> 106 </feature>
					<threshold> 0.0078125 </threshold>
					<split pos="left">
						<output> -0.12840751 </output>
					</split>
					<split pos="right">
						<feature> 23 </feature>
						<threshold> 0.58228153 </threshold>
						<split pos="left">
							<feature> 81 </feature>
							<threshold> 0.015625 </threshold>
							<split pos="left">
								<output> 0.019976035 </output>
							</split>
							<split pos="right">
								<output> 0.08680807 </output>
							</split>
						</split>
						<split pos="right">
							<output> 0.0026562952 </output>
						</split>
					</split>
				</split>
			</split>
			<split pos="right">
				<feature> 15 </feature>
				<threshold> 0.0 </threshold>
				<split pos="left">
					<output> -0.096285045 </output>
				</split>
				<split pos="right">
					<feature> 15 </feature>
					<threshold> 0.1 </threshold>
					<split pos="left">
						<output> 0.11685176 </output>
					</split>
					<split pos="right">
						<feature> 15 </feature>
						<threshold> 0.625 </threshold>
						<split pos="left">
							<output> -0.025089132 </output>
						</split>
						<split pos="right">
							<output> 0.08508026 </output>
						</split>
					</split>
				</split>
			</split>
		</split>
	</tree>
	<tree id="51" weight="0.1">
		<split>
			<feature> 97 </feature>
			<threshold> 0.04296875 </threshold>
			<split pos="left">
				<feature> 29 </feature>
				<threshold> 0.6998155 </threshold>
				<split pos="left">
					<feature> 41 </feature>
					<threshold> 0.45410845 </threshold>
					<split pos="left">
						<feature> 78 </feature>
						<threshold> 0.01171875 </threshold>
						<split pos="left">
							<output> 0.018547006 </output>
						</split>
						<split pos="right">
							<feature> 94 </feature>
							<threshold> 0.01171875 </threshold>
							<split pos="left">
								<output> -0.070415325 </output>
							</split>
							<split pos="right">
								<feature> 111 </feature>
								<threshold> 0.01953125 </threshold>
								<split pos="left">
									<output> -0.0823598 </output>
								</split>
								<split pos="right">
									<output> 0.011381829 </output>
								</split>
							</split>
						</split>
					</split>
					<split pos="right">
						<feature> 19 </feature>
						<threshold> 0.14285715 </threshold>
						<split pos="left">
							<feature> 19 </feature>
							<threshold> 0.09090909 </threshold>
							<split pos="left">
								<feature> 21 </feature>
								<threshold> 0.4748383 </threshold>
								<split pos="left">
									<output> -0.0028372793 </output>
								</split>
								<split pos="right">
									<output> 0.059531353 </output>
								</split>
							</split>
							<split pos="right">
								<output> -0.06379215 </output>
							</split>
						</split>
						<split pos="right">
							<output> 0.061417468 </output>
						</split>
					</split>
				</split>
				<split pos="right">
					<output> 0.068909876 </output>
				</split>
			</split>
			<split pos="right">
				<output> -0.032328583 </output>
			</split>
		</split>
	</tree>
	<tree id="52" weight="0.1">
		<split>
			<feature> 92 </feature>
			<threshold> 0.015625 </threshold>
			<split pos="left">
				<output> 0.046224643 </output>
			</split>
			<split pos="right">
				<feature> 100 </feature>
				<threshold> 0.0234375 </threshold>
				<split pos="left">
					<output> -0.06738898 </output>
				</split>
				<split pos="right">
					<feature> 106 </feature>
					<threshold> 0.01171875 </threshold>
					<split pos="left">
						<output> -0.09038737 </output>
					</split>
					<split pos="right">
						<feature> 78 </feature>
						<threshold> 0.01171875 </threshold>
						<split pos="left">
							<output> 0.0822033 </output>
						</split>
						<split pos="right">
							<feature> 94 </feature>
							<threshold> 0.0078125 </threshold>
							<split pos="left">
								<output> -0.1468917 </output>
							</split>
							<split pos="right">
								<feature> 92 </feature>
								<threshold> 0.0234375 </threshold>
								<split pos="left">
									<output> 0.0846032 </output>
								</split>
								<split pos="right">
									<feature> 83 </feature>
									<threshold> 0.01953125 </threshold>
									<split pos="left">
										<output> -0.08012427 </output>
									</split>
									<split pos="right">
										<feature> 81 </feature>
										<threshold> 0.015625 </threshold>
										<split pos="left">
											<output> -0.06394071 </output>
										</split>
										<split pos="right">
											<feature> 87 </feature>
											<threshold> 0.015625 </threshold>
											<split pos="left">
												<output> 0.08407208 </output>
											</split>
											<split pos="right">
												<output> -0.0032297575 </output>
											</split>
										</split>
									</split>
								</split>
							</split>
						</split>
					</split>
				</split>
			</split>
		</split>
	</tree>
	<tree id="53" weight="0.1">
		<split>
			<feature> 83 </feature>
			<threshold> 0.0078125 </threshold>
			<split pos="left">
				<output> -0.08393741 </output>
			</split>
			<split pos="right">
				<feature> 88 </feature>
				<threshold> 0.0078125 </threshold>
				<split pos="left">
					<output> 0.11528916 </output>
				</split>
				<split pos="right">
					<feature> 112 </feature>
					<threshold> 0.0078125 </threshold>
					<split pos="left">
						<output> -0.1147801 </output>
					</split>
					<split pos="right">
						<feature> 82 </feature>
						<threshold> 0.0078125 </threshold>
						<split pos="left">
							<output> 0.069034 </output>
						</split>
						<split pos="right">
							<feature> 73 </feature>
							<threshold> 0.01953125 </threshold>
							<split pos="left">
								<output> -0.036709234 </output>
							</split>
							<split pos="right">
								<feature> 87 </feature>
								<threshold> 0.01171875 </threshold>
								<split pos="left">
									<output> 0.048522435 </output>
								</split>
								<split pos="right">
									<feature> 119 </feature>
									<threshold> 0.015625 </threshold>
									<split pos="left">
										<output> -0.05301731 </output>
									</split>
									<split pos="right">
										<feature> 106 </feature>
										<threshold> 0.01953125 </threshold>
										<split pos="left">
											<output> -0.10047042 </output>
										</split>
										<split pos="right">
											<feature> 91 </feature>
											<threshold> 0.01953125 </threshold>
											<split pos="left">
												<output> -0.10374039 </output>
											</split>
											<split pos="right">
												<output> 0.05891657 </output>
											</split>
										</split>
									</split>
								</split>
							</split>
						</split>
					</split>
				</split>
			</split>
		</split>
	</tree>
	<tree id="54" weight="0.1">
		<split>
			<feature> 98 </feature>
			<threshold> 0.01171875 </threshold>
			<split pos="left">
				<feature> 96 </feature>
				<threshold> 0.015625 </threshold>
				<split pos="left">
					<output> -0.03268695 </output>
				</split>
				<split pos="right">
					<feature> 117 </feature>
					<threshold> 0.01171875 </threshold>
					<split pos="left">
						<output> -0.04915802 </output>
					</split>
					<split pos="right">
						<output> 0.0895543 </output>
					</split>
				</split>
			</split>
			<split pos="right">
				<feature> 111 </feature>
				<threshold> 0.015625 </threshold>
				<split pos="left">
					<output> -0.07614452 </output>
				</split>
				<split pos="right">
					<feature> 106 </feature>
					<threshold> 0.01171875 </threshold>
					<split pos="left">
						<output> -0.09506927 </output>
					</split>
					<split pos="right">
						<feature> 70 </feature>
						<threshold> 0.015625 </threshold>
						<split pos="left">
							<feature> 103 </feature>
							<threshold> 0.01171875 </threshold>
							<split pos="left">
								<output> 0.12018329 </output>
							</split>
							<split pos="right">
								<output> 0.0127683105 </output>
							</split>
						</split>
						<split pos="right">
							<feature> 91 </feature>
							<threshold> 0.01953125 </threshold>
							<split pos="left">
								<output> -0.062246785 </output>
							</split>
							<split pos="right">
								<feature> 108 </feature>
								<threshold> 0.0234375 </threshold>
								<split pos="left">
									<output> 0.06379534 </output>
								</split>
								<split pos="right">
									<output> -0.017021636 </output>
								</split>
							</split>
						</split>
					</split>
				</split>
			</split>
		</split>
	</tree>
	<tree id="55" weight="0.1">
		<split>
			<feature> 118 </feature>
			<threshold> 0.0078125 </threshold>
			<split pos="left">
				<output> 0.059939012 </output>
			</split>
			<split pos="right">
				<feature> 94 </feature>
				<threshold> 0.0078125 </threshold>
				<split pos="left">
					<output> -0.062550865 </output>
				</split>
				<split pos="right">
					<feature> 109 </feature>
					<threshold> 0.0078125 </threshold>
					<split pos="left">
						<output> -0.054158177 </output>
					</split>
					<split pos="right">
						<feature> 118 </feature>
						<threshold> 0.01171875 </threshold>
						<split pos="left">
							<output> 0.072561905 </output>
						</split>
						<split pos="right">
							<feature> 92 </feature>
							<threshold> 0.0234375 </threshold>
							<split pos="left">
								<output> 0.04910246 </output>
							</split>
							<split pos="right">
								<feature> 94 </feature>
								<threshold> 0.01171875 </threshold>
								<split pos="left">
									<output> -0.07720085 </output>
								</split>
								<split pos="right">
									<feature> 100 </feature>
									<threshold> 0.03515625 </threshold>
									<split pos="left">
										<output> -0.07665717 </output>
									</split>
									<split pos="right">
										<feature> 106 </feature>
										<threshold> 0.015625 </threshold>
										<split pos="left">
											<output> -0.12555344 </output>
										</split>
										<split pos="right">
											<feature> 93 </feature>
											<threshold> 0.01953125 </threshold>
											<split pos="left">
												<output> 0.067758225 </output>
											</split>
											<split pos="right">
												<output> -0.016366187 </output>
											</split>
										</split>
									</split>
								</split>
							</split>
						</split>
					</split>
				</split>
			</split>
		</split>
	</tree>
	<tree id="56" weight="0.1">
		<split>
			<feature> 108 </feature>
			<threshold> 0.0078125 </threshold>
			<split pos="left">
				<output> 0.064879045 </output>
			</split>
			<split pos="right">
				<feature> 112 </feature>
				<threshold> 0.0078125 </threshold>
				<split pos="left">
					<output> -0.07140774 </output>
				</split>
				<split pos="right">
					<feature> 88 </feature>
					<threshold> 0.01171875 </threshold>
					<split pos="left">
						<output> 0.042673714 </output>
					</split>
					<split pos="right">
						<feature> 100 </feature>
						<threshold> 0.03125 </threshold>
						<split pos="left">
							<output> -0.04546872 </output>
						</split>
						<split pos="right">
							<feature> 108 </feature>
							<threshold> 0.015625 </threshold>
							<split pos="left">
								<output> 0.05532741 </output>
							</split>
							<split pos="right">
								<feature> 94 </feature>
								<threshold> 0.01171875 </threshold>
								<split pos="left">
									<output> -0.05994499 </output>
								</split>
								<split pos="right">
									<feature> 106 </feature>
									<threshold> 0.015625 </threshold>
									<split pos="left">
										<output> -0.092966095 </output>
									</split>
									<split pos="right">
										<feature> 85 </feature>
										<threshold> 0.01171875 </threshold>
										<split pos="left">
											<feature> 109 </feature>
											<threshold> 0.01171875 </threshold>
											<split pos="left">
												<output> -0.044216484 </output>
											</split>
											<split pos="right">
												<output> 0.10067631 </output>
											</split>
										</split>
										<split pos="right">
											<output> -0.009895223 </output>
										</split>
									</split>
								</split>
							</split>
						</split>
					</split>
				</split>
			</split>
		</split>
	</tree>
	<tree id="57" weight="0.1">
		<split>
			<feature> 77 </feature>
			<threshold> 0.00390625 </threshold>
			<split pos="left">
				<output> -0.09996685 </output>
			</split>
			<split pos="right">
				<feature> 103 </feature>
