SVM-light Version V6.20
0 # kernel type
3 # kernel parameter -d 
1 # kernel parameter -g 
1 # kernel parameter -s 
1 # kernel parameter -r 
empty# kernel parameter -u 
120 # highest feature index 
12 # number of training documents 
2 # number of support vectors plus 1 
0 # threshold b, each following line is a SV (starting with alpha*y)
1 1:-0.0063289101 2:-0.0081434026 3:-0.0063417507 4:0.0032944668 5:-0.0069523361 6:0.00092596537 7:0.0034260594 8:-0.0010787208 9:0.0025302826 10:-0.00029197999 11:0.0020997406 12:-4.1154399e-05 13:0.011508627 14:0.0050769346 15:0.0052044522 16:-0.0063606841 17:-0.00028649039 18:-0.0049235462 19:-0.0022510313 20:-0.0018048541 21:0.0079159057 22:-0.00074513402 23:-0.0061417385 24:0.00036131087 25:0.000453104 26:0.0006540505 27:-0.001765593 28:-0.0044839834 29:0.0051213121 30:-0.0049133659 31:0.0069252541 32:0.0025290346 33:2.2880595e-05 34:-0.0059798444 35:0.0005896939 36:-0.0017610135 37:-0.004276277 38:-0.0013785725 39:-0.0055180634 40:0.0055021024 41:0.0060779019 42:-0.0027364441 43:-0.0012780648 44:0.0026594487 45:-0.0045618061 46:0.0019592317 47:0.0019850954 48:0.0012280765 49:0.004868004 50:0.00024710345 51:-0.00029431086 52:0.0018755322 53:-0.003002672 54:0.0023005768 55:0.0020929836 56:-0.0089239245 57:0.0052585867 58:0.0017699336 59:-0.0040695495 60:0.00095207582 61:0.0044139479 62:-0.001160475 63:0.00011546617 64:0.00095240108 65:-0.0076339818 66:0.0027366464 67:0.0026559399 68:-0.0033533974 69:-0.0004539309 70:-0.0010258548 71:0.00027777904 72:0.001058612 73:0.00039872387 74:-0.0013856684 75:-0.00081425073 76:-1.4807672e-05 77:-0.00057303323 78:-0.0016704646 79:-0.0016210083 80:-0.0015067984 81:0.00044175939 82:-0.0011434628 83:-0.0010427117 84:-0.0013056636 85:-0.0013803794 86:-0.00076860847 87:-0.00084660132 88:-0.00051564729 89:0.00028520208 90:-0.0010794463 91:-0.00036290759 92:-0.0016981104 93:-0.0016188889 94:-0.00019434848 95:-0.00082051998 96:3.4952587e-05 97:-0.00095861673 98:-0.00093770813 99:-0.00014617291 100:0.00067011639 101:-0.00026026389 102:-0.0017156416 103:-0.0011387668 104:-0.00080095517 105:-0.00050058955 106:0.00048508408 107:-0.0022380524 108:-0.002762381 109:-1.4363605e-05 110:-0.00083031296 111:0.0002548167 112:-0.0014831349 113:0.00017779774 114:0.00067045371 115:-0.0022608256 116:-0.0007347553 117:-0.00046335231 118:-0.0011856375 119:0.00030026655 #
